//Numpy array shape [16, 16]
//Min -0.875000000000
//Max 0.937500000000
//Number of zeros 69

#ifndef W15_H_
#define W15_H_

#ifndef __SYNTHESIS__
weight15_t w15[256];
#else
weight15_t w15[256] = {0.5000, 0.6875, -0.2500, 0.5000, -0.2500, -0.1875, -0.7500, -0.3125, 0.3125, -0.3125, 0.0000, 0.7500, -0.6250, 0.7500, -0.4375, -0.5000, 0.2500, -0.5000, -0.4375, -0.5000, 0.0000, -0.3750, -0.2500, 0.3125, -0.8750, 0.0000, 0.0000, -0.5625, -0.2500, 0.4375, 0.0000, 0.0000, 0.2500, -0.2500, -0.5625, 0.2500, 0.5000, 0.0000, -0.1250, 0.7500, -0.3125, -0.2500, 0.0000, 0.0000, 0.6250, -0.3750, 0.0000, -0.2500, -0.4375, 0.5000, -0.2500, 0.0000, 0.3125, 0.0000, 0.0000, 0.2500, 0.0000, 0.0000, 0.7500, 0.0000, -0.1875, -0.7500, -0.5000, -0.2500, 0.0000, 0.2500, -0.3750, 0.0000, 0.0000, 0.3750, -0.3750, 0.0000, -0.1875, -0.2500, 0.0000, 0.5625, 0.3750, 0.0000, 0.2500, -0.3750, 0.0000, 0.4375, 0.6875, 0.0000, 0.5000, 0.1875, 0.0000, 0.4375, -0.3750, -0.5000, 0.3125, 0.4375, 0.0000, -0.5000, 0.0000, 0.3750, 0.3750, 0.2500, 0.0000, 0.1875, 0.5000, -0.2500, -0.3125, -0.3125, 0.2500, 0.5000, 0.5625, -0.2500, 0.5000, 0.3125, 0.0000, 0.0000, -0.8125, -0.3125, 0.1875, -0.1875, -0.6875, -0.3125, -0.1875, -0.3750, -0.2500, 0.0000, 0.1875, 0.2500, 0.0000, 0.6875, -0.6875, 0.0000, -0.1875, -0.3750, 0.0000, 0.3125, 0.3125, 0.5000, 0.2500, -0.6875, 0.3750, 0.0000, 0.0000, -0.3125, 0.3125, 0.2500, 0.5625, 0.5625, -0.1875, 0.0000, -0.1875, -0.3750, 0.4375, -0.8125, 0.3125, -0.3750, -0.3125, 0.4375, 0.0000, 0.0000, 0.0000, -0.3125, 0.1875, -0.5625, -0.4375, 0.0000, 0.0000, 0.5625, 0.0000, -0.5000, 0.0000, 0.0000, 0.0000, -0.4375, -0.4375, 0.0000, 0.9375, 0.5625, -0.6875, 0.2500, -0.6875, 0.0000, -0.3125, -0.6875, -0.2500, 0.3750, -0.3750, -0.6875, 0.0000, 0.2500, 0.0000, 0.8125, 0.1875, -0.2500, 0.1875, -0.3125, 0.3750, -0.4375, -0.2500, 0.5000, 0.1875, 0.1875, 0.0000, 0.0000, 0.2500, 0.0000, -0.5000, 0.2500, -0.3125, -0.3750, 0.0000, -0.5625, -0.1875, -0.4375, 0.3125, 0.0000, 0.0000, 0.0000, 0.0000, -0.3125, -0.7500, -0.3750, -0.2500, 0.3125, 0.0000, -0.1875, 0.3125, -0.5000, 0.0000, 0.0000, -0.2500, 0.3750, -0.3125, 0.0000, 0.7500, -0.2500, 0.2500, 0.0000, -0.5000, 0.4375, 0.0000, -0.5625, -0.5000, 0.1875, 0.6250, 0.0000, 0.4375, 0.5625, 0.3750, -0.3750, 0.0000, -0.7500, -0.4375, -0.1875, 0.0000, 0.0000, -0.2500, 0.0000, 0.5625, -0.8125};

#endif

#endif
