//Numpy array shape [16, 10]
//Min -1.437500000000
//Max 1.500000000000
//Number of zeros 43

#ifndef W19_H_
#define W19_H_

#ifndef __SYNTHESIS__
weight19_t w19[160];
#else
weight19_t w19[160] = {0.6250, 0.0000, 0.5625, 0.0000, -0.9375, 1.3125, 0.0000, -0.9375, 1.0000, -1.1250, 0.0000, 0.0000, 0.6250, -1.0000, 0.8750, 0.0000, 0.0000, -0.5625, 0.6250, -0.9375, -0.6250, 1.4375, 0.7500, 1.0625, -0.6875, -1.0625, -1.3750, 0.0000, 1.5000, 0.0000, -1.2500, -0.6250, 0.6250, 0.0000, 0.0000, 0.0000, 1.1875, 0.0000, 0.6250, -0.8125, 0.6250, -1.3125, 0.7500, 0.8125, -0.5625, -0.6250, 0.7500, 0.0000, 0.7500, 0.0000, -0.5625, 0.8750, -1.1250, 0.0000, 0.5625, 0.5625, 0.5625, -1.0625, 0.0000, -1.3125, -0.8750, -1.2500, -0.8125, 1.1250, 0.0000, 0.0000, -1.3125, 0.8125, 1.1250, 0.0000, 0.0000, -0.7500, 0.8125, 0.8125, 0.0000, 0.8125, -1.3750, -0.9375, -1.1875, -1.0000, 0.0000, -0.6875, -0.5000, 0.0000, 1.1250, 0.8125, 1.3125, 0.0000, 0.9375, 0.0000, 0.8750, -0.6875, -1.1250, -1.2500, 0.6250, 0.0000, 0.0000, -0.7500, 0.8750, 1.0000, 0.8750, 0.0000, 1.1875, -0.6250, 0.5625, -1.4375, 0.0000, -1.1250, 0.8125, 0.0000, -0.8125, 1.0000, 0.0000, 0.0000, 1.0625, -0.5625, 0.5625, 1.1250, 0.0000, -0.8125, 0.0000, -0.8750, 0.8125, 1.3750, 1.0625, -1.3750, 0.9375, -0.5625, -0.8125, 0.8750, -1.1875, 0.7500, 0.6875, 0.0000, -1.0000, 0.5625, 0.0000, -1.1250, 0.0000, 1.1875, 1.0000, 1.1875, -1.0625, 1.0000, -1.2500, 0.0000, 1.1250, -1.0000, 0.0000, 0.0000, -1.0625, 0.0000, 0.0000, 1.1250, 0.8750, 0.6250, -0.7500, -1.3125, 0.9375, 0.7500};

#endif

#endif
