//Numpy array shape [5, 5, 6, 16]
//Min -0.562500000000
//Max 0.625000000000
//Number of zeros 649

#ifndef W6_H_
#define W6_H_

#ifndef __SYNTHESIS__
weight6_t w6[2400];
#else
weight6_t w6[2400] = {0.0000, 0.1875, -0.1250, 0.0000, 0.1875, 0.1875, 0.0625, -0.1250, -0.1875, 0.0000, 0.0000, 0.0000, 0.0625, -0.1875, 0.0625, 0.0000, 0.0625, 0.2500, 0.1250, 0.1250, 0.0000, -0.2500, -0.1250, 0.0625, 0.0000, -0.1250, -0.1250, 0.1250, -0.1875, 0.0625, 0.0000, 0.0000, -0.3125, -0.1250, 0.0000, 0.1875, 0.0625, -0.3125, 0.0625, 0.0000, 0.0000, 0.1875, 0.0000, 0.0000, 0.0000, 0.0000, -0.1875, 0.1875, 0.1875, 0.1875, 0.0000, 0.0625, 0.1250, 0.0625, 0.0000, -0.1875, 0.1250, -0.1250, -0.1250, -0.0625, 0.0000, -0.0625, 0.0000, -0.0625, 0.1250, 0.0000, 0.0000, -0.1250, -0.1875, -0.1250, 0.1250, 0.1250, 0.0000, 0.1250, 0.1250, 0.1250, -0.1250, -0.1250, -0.1250, 0.0000, -0.1875, -0.2500, 0.0000, 0.0000, 0.0625, 0.1250, 0.0625, 0.2500, 0.0000, -0.0625, -0.1250, 0.0625, -0.1875, -0.0625, 0.0000, 0.0000, 0.0000, 0.0625, 0.0000, -0.1250, 0.0000, 0.3125, 0.1250, -0.1875, -0.1250, 0.0625, -0.0625, 0.0000, 0.0625, 0.0625, 0.1250, -0.0625, 0.1875, 0.0000, 0.1875, 0.1250, 0.0000, 0.1875, -0.1250, -0.1875, -0.0625, -0.1875, -0.1250, 0.0000, -0.2500, -0.0625, 0.0000, 0.0000, -0.2500, 0.0000, -0.1250, 0.0625, 0.1250, -0.1875, -0.0625, 0.0000, 0.0000, 0.0000, 0.0000, 0.2500, -0.0625, 0.1250, -0.1875, -0.0625, 0.1875, 0.0625, 0.1875, 0.1250, 0.0625, 0.1875, -0.1250, -0.1875, 0.1250, 0.0625, -0.1250, 0.0625, 0.2500, 0.0000, 0.0625, 0.0000, 0.1250, 0.0625, -0.1875, 0.0000, 0.0000, -0.1875, 0.1875, -0.2500, 0.1250, 0.0625, 0.0000, 0.1875, 0.0000, 0.0000, -0.1250, 0.0000, 0.0000, 0.0000, 0.1875, 0.1250, 0.0000, 0.0625, 0.0000, 0.0000, 0.0000, -0.0625, -0.1250, 0.0625, 0.0625, -0.1250, 0.0000, -0.0625, -0.1875, 0.0000, 0.1250, 0.0000, -0.0625, 0.1875, 0.1250, -0.1875, -0.0625, 0.1250, 0.0625, 0.0000, 0.1875, 0.0000, 0.0000, 0.0000, 0.1875, -0.1250, 0.1250, 0.0000, -0.1875, 0.1250, -0.1250, 0.1250, 0.0000, 0.0000, -0.1250, 0.1875, -0.0625, -0.0625, 0.0000, 0.1250, 0.0625, 0.0000, 0.0625, 0.0000, -0.0625, -0.2500, 0.0000, -0.0625, 0.0625, 0.0625, 0.1250, 0.1250, -0.0625, 0.1875, -0.0625, 0.0000, 0.1250, 0.1875, 0.0000, -0.0625, 0.1250, 0.0000, 0.0625, -0.2500, 0.0000, 0.0625, -0.0625, 0.0000, 0.1875, 0.0000, 0.1250, -0.0625, 0.0000, -0.1875, 0.1875, -0.0625, 0.1875, 0.1875, 0.1250, 0.0000, 0.2500, -0.0625, 0.0000, 0.3125, -0.0625, 0.0000, -0.1875, -0.0625, 0.1250, 0.1875, 0.1875, 0.1875, 0.1250, 0.1250, -0.0625, -0.1250, 0.0000, 0.0625, 0.0000, 0.0000, 0.1250, 0.0625, 0.0000, -0.0625, 0.0625, 0.0625, 0.1250, 0.0000, 0.0625, -0.0625, 0.1875, 0.0000, 0.0000, 0.0000, -0.0625, -0.3125, 0.0625, 0.0625, 0.0625, -0.1250, -0.1250, 0.1875, 0.0000, 0.0625, 0.0000, -0.1875, -0.1250, 0.0000, 0.0000, 0.0000, -0.0625, -0.0625, -0.0625, 0.0000, -0.1250, 0.1250, 0.0000, 0.0000, 0.0625, 0.0000, 0.0625, -0.1250, 0.0625, -0.1250, 0.0625, -0.1250, -0.1250, 0.0000, 0.1250, 0.0625, 0.0000, -0.1250, 0.1875, 0.0625, 0.1250, 0.0625, 0.0000, 0.0000, 0.0625, -0.0625, -0.1250, 0.0000, 0.1250, 0.0625, 0.0625, 0.1875, 0.1250, -0.1875, -0.1250, -0.3125, -0.0625, 0.2500, 0.0625, 0.1250, 0.1250, 0.2500, 0.1250, -0.1250, -0.0625, 0.1250, -0.1875, 0.1875, 0.0000, 0.1250, 0.0000, 0.1875, -0.1250, -0.0625, 0.2500, 0.1250, 0.0000, 0.0625, 0.1250, -0.1875, 0.1250, -0.1875, 0.0625, 0.0625, 0.1250, 0.0000, 0.1250, -0.1875, -0.2500, 0.0625, 0.1250, 0.2500, 0.1875, -0.0625, 0.1250, 0.0000, 0.0000, -0.3125, 0.0000, 0.0625, -0.0625, -0.2500, -0.1250, 0.0000, 0.1875, 0.0625, 0.0625, 0.0000, -0.0625, -0.0625, -0.1250, 0.2500, 0.1250, -0.1250, 0.0000, 0.0000, -0.1250, 0.1875, -0.0625, 0.1875, -0.0625, 0.0000, 0.0625, 0.1250, -0.0625, -0.0625, -0.1250, 0.0625, 0.0000, 0.0000, 0.0000, 0.0000, 0.0625, -0.1250, 0.2500, -0.0625, -0.1250, 0.0625, 0.1875, 0.0625, 0.1250, -0.0625, 0.0000, -0.0625, 0.0625, 0.0000, 0.2500, 0.0625, 0.0000, -0.0625, 0.0000, 0.0000, 0.2500, 0.1875, 0.0625, 0.0000, -0.0625, 0.1250, -0.0625, -0.1875, -0.2500, -0.1875, -0.1250, 0.0000, 0.0000, 0.0000, 0.1250, 0.0000, 0.0625, 0.0000, -0.0625, -0.0625, -0.0625, 0.1250, 0.0625, 0.0000, 0.0000, 0.0000, 0.1875, -0.0625, 0.0625, 0.0000, 0.1250, 0.0000, 0.1875, 0.0000, 0.1875, 0.2500, 0.0000, -0.1250, -0.1250, 0.0000, -0.0625, 0.0625, 0.1875, 0.1250, 0.0000, 0.0000, 0.4375, 0.0000, 0.3125, 0.1250, -0.4375, 0.1875, -0.1875, -0.0625, 0.0625, -0.0625, -0.3125, 0.1250, -0.0625, 0.0000, -0.1250, -0.0625, -0.2500, 0.0000, 0.1250, 0.1250, 0.0000, 0.0625, -0.0625, 0.0625, 0.1250, 0.1250, -0.1875, 0.1875, -0.0625, -0.0625, 0.1875, 0.0000, 0.0000, 0.1250, -0.1250, -0.0625, 0.1250, 0.0000, 0.1875, -0.1875, 0.1250, 0.0000, 0.0000, -0.0625, 0.0625, -0.0625, 0.0000, -0.1250, 0.1875, -0.1875, -0.1875, -0.0625, 0.0000, -0.1250, 0.1250, 0.1250, -0.1250, 0.1250, 0.0625, 0.1250, 0.1875, 0.1250, -0.1250, 0.0000, -0.0625, -0.1875, 0.0000, 0.1250, 0.1250, 0.0000, 0.1250, 0.1875, -0.1875, 0.0000, -0.1250, 0.0625, -0.0625, -0.0625, -0.1250, 0.1250, -0.0625, 0.2500, -0.0625, -0.1250, 0.2500, 0.1250, 0.0625, -0.1875, -0.2500, 0.1875, -0.1250, -0.1875, 0.1250, 0.0000, 0.1250, 0.0000, 0.0625, 0.0000, -0.1250, 0.1250, -0.1250, 0.0000, 0.0000, 0.0625, 0.0000, -0.1250, -0.4375, 0.0000, 0.0000, 0.1250, -0.0625, 0.0000, -0.2500, 0.0625, 0.0000, 0.1875, 0.0000, 0.0625, 0.0625, 0.0625, 0.0625, 0.0625, -0.1250, 0.0000, 0.0625, 0.1250, 0.0625, 0.0625, -0.1250, -0.0625, 0.1875, 0.0000, -0.0625, 0.0000, 0.0625, 0.0000, 0.0000, 0.1250, 0.2500, 0.0000, -0.0625, 0.1250, -0.1250, -0.1250, 0.1250, 0.0000, 0.0000, -0.1250, -0.0625, 0.1875, 0.2500, 0.0000, 0.0000, 0.0000, 0.0000, 0.1875, -0.0625, 0.0000, -0.0625, 0.0625, 0.1875, -0.1250, 0.1875, 0.1250, 0.1875, 0.0000, 0.1875, -0.1875, -0.0625, 0.0000, 0.1875, 0.1250, -0.1250, -0.1875, 0.1250, 0.0000, 0.0625, 0.1875, 0.0000, 0.0000, 0.0625, 0.0000, 0.0000, 0.0000, 0.0625, 0.1875, 0.1250, -0.1875, 0.0000, 0.0000, 0.1250, -0.0625, 0.0000, 0.0625, -0.1875, 0.1875, 0.0625, 0.0000, -0.1875, -0.0625, -0.1250, 0.1250, -0.2500, -0.1875, -0.1875, 0.2500, -0.3125, 0.0000, -0.1875, 0.0000, 0.1250, 0.1875, 0.1875, -0.1250, 0.2500, -0.0625, 0.0625, 0.0000, 0.0000, 0.0000, -0.1875, 0.0000, 0.1875, 0.0000, 0.0625, -0.0625, 0.3750, 0.0625, 0.1250, -0.1250, 0.0000, 0.0000, -0.2500, -0.0625, 0.1250, 0.1250, 0.1875, 0.0625, -0.1875, -0.1250, 0.0000, 0.0000, 0.0000, 0.0625, 0.0000, 0.1875, 0.1875, 0.0625, 0.1250, -0.1875, -0.2500, -0.0625, 0.1250, 0.0000, 0.1250, 0.1250, 0.0000, -0.0625, 0.1250, 0.0625, 0.0000, 0.0625, 0.1875, -0.0625, -0.0625, -0.0625, 0.3125, 0.0000, -0.1250, 0.0625, 0.1875, -0.0625, 0.2500, 0.0000, 0.0000, 0.0000, 0.1250, 0.1250, 0.0625, -0.0625, 0.1875, -0.0625, 0.1875, -0.0625, 0.1250, 0.2500, 0.0625, 0.1250, 0.0625, 0.0000, -0.1250, 0.0000, -0.1250, -0.0625, -0.0625, -0.0625, -0.0625, 0.0625, 0.0625, -0.0625, -0.1875, 0.1875, -0.1250, -0.1250, -0.2500, 0.0000, 0.2500, 0.2500, 0.1875, 0.0625, 0.1250, 0.0000, 0.1875, -0.1250, 0.0000, -0.2500, 0.0625, 0.0000, 0.1250, 0.0000, 0.0000, 0.0000, -0.1250, -0.0625, 0.1875, 0.0000, 0.2500, 0.0625, -0.0625, -0.1250, 0.1250, 0.1250, 0.1250, 0.0000, 0.0000, 0.0625, 0.0000, -0.1250, 0.1875, -0.1875, 0.0000, 0.2500, 0.1250, -0.0625, 0.0625, -0.1875, -0.1250, 0.0000, -0.0625, 0.3125, 0.0000, 0.1250, 0.1875, 0.0000, 0.3125, 0.0000, -0.0625, 0.0000, 0.1250, 0.0625, 0.0000, -0.0625, 0.3125, 0.0625, 0.0625, 0.1250, -0.0625, -0.1250, -0.0625, 0.0000, 0.0625, 0.1250, 0.1250, 0.1250, 0.2500, 0.1250, 0.1875, 0.1250, 0.1250, -0.1250, 0.0000, 0.0625, -0.0625, -0.1250, 0.0000, 0.0000, 0.0000, 0.0000, 0.0000, 0.0000, -0.1250, -0.1250, -0.1250, -0.0625, -0.0625, 0.0000, 0.0625, 0.1250, 0.0000, -0.0625, 0.0000, 0.3750, 0.2500, 0.1875, 0.1875, 0.1875, 0.0625, 0.0625, -0.1250, -0.2500, -0.0625, -0.1875, -0.1250, 0.0625, 0.1250, -0.1250, 0.1875, -0.1250, 0.0000, 0.0000, 0.0625, -0.0625, 0.0625, 0.1250, 0.0000, -0.1250, 0.0625, -0.1875, 0.1250, 0.0000, -0.0625, 0.1250, -0.0625, -0.1875, -0.1250, 0.0000, -0.0625, 0.0625, -0.0625, 0.0000, 0.0000, -0.2500, -0.2500, 0.1875, 0.0000, 0.1875, 0.0000, -0.1250, -0.0625, 0.2500, 0.0000, 0.0000, 0.0625, -0.1250, 0.0625, 0.1250, -0.0625, 0.2500, 0.0000, -0.0625, 0.1875, 0.0000, 0.0625, -0.0625, -0.1250, 0.0000, -0.0625, 0.0000, 0.0000, 0.1250, 0.0000, -0.2500, -0.0625, -0.1250, 0.0000, -0.3125, -0.0625, 0.0000, -0.1250, 0.0000, 0.1875, 0.1250, 0.0625, -0.1875, -0.3125, 0.0000, -0.0625, -0.0625, 0.1875, 0.0000, -0.0625, -0.0625, -0.1250, 0.1875, -0.0625, -0.1250, -0.3750, -0.1250, -0.1250, 0.0000, 0.0625, 0.0000, 0.0000, -0.0625, 0.2500, 0.2500, -0.1875, 0.1250, 0.1875, 0.0625, 0.1875, 0.1875, 0.0000, 0.1875, -0.0625, -0.1875, 0.0625, -0.0625, 0.0000, -0.1250, 0.0000, -0.2500, 0.0000, 0.1250, 0.0000, 0.0000, -0.0625, -0.1875, 0.1250, 0.0000, 0.0000, -0.1250, 0.0625, -0.0625, 0.1250, -0.1875, -0.0625, 0.0000, 0.0625, 0.0000, -0.0625, 0.0000, 0.0625, 0.0625, 0.1250, -0.1875, 0.3125, 0.0000, 0.0000, 0.0625, -0.1250, 0.0000, 0.0625, 0.1875, -0.1250, -0.1250, 0.0000, 0.0000, -0.1250, -0.0625, 0.0625, 0.0000, 0.0000, 0.1875, 0.1875, -0.2500, -0.1250, -0.0625, -0.0625, 0.0625, 0.0625, -0.1250, 0.0000, 0.1250, 0.0000, -0.0625, -0.0625, -0.0625, -0.1875, -0.0625, -0.3750, -0.0625, -0.0625, -0.0625, 0.0000, 0.1875, 0.0000, -0.0625, -0.1250, 0.3125, 0.0625, -0.1875, -0.0625, 0.1875, 0.0000, 0.0000, 0.2500, -0.0625, 0.2500, -0.1875, 0.1875, -0.1875, 0.1250, 0.0000, 0.0000, -0.0625, 0.1250, 0.1250, -0.1875, 0.0625, 0.1250, 0.0625, 0.1250, 0.0000, 0.0000, 0.0000, 0.0000, -0.3125, 0.1250, 0.1875, 0.0000, 0.0625, -0.0625, -0.1250, -0.2500, 0.0000, 0.0000, -0.2500, 0.0000, 0.0000, 0.1250, 0.0000, 0.0625, -0.1875, 0.3750, -0.1875, 0.0000, 0.1875, -0.0625, 0.0625, 0.1875, 0.1250, 0.2500, 0.2500, 0.0000, 0.1250, 0.0000, -0.0625, 0.0625, 0.1875, -0.2500, 0.0000, -0.0625, 0.0000, 0.0000, 0.0000, 0.0000, 0.1250, 0.1250, 0.0000, 0.1250, -0.1250, 0.0625, -0.0625, 0.0625, -0.0625, 0.0625, -0.1250, 0.0000, 0.1875, -0.1250, 0.0000, 0.1875, 0.0000, 0.1250, 0.0000, -0.1875, 0.0000, -0.0625, -0.0625, 0.1250, 0.1875, -0.0625, -0.1250, 0.0000, 0.0625, 0.1250, 0.0000, -0.1875, 0.0625, 0.1250, 0.0625, 0.0000, 0.0000, 0.2500, -0.2500, 0.0000, -0.3125, 0.1875, -0.2500, -0.0625, 0.1250, 0.2500, 0.0000, 0.0625, 0.0000, 0.0625, 0.0625, -0.0625, 0.0000, 0.0625, 0.0000, -0.1250, 0.1250, 0.0000, 0.0625, 0.0625, 0.0000, -0.2500, 0.0625, -0.1250, 0.0625, -0.0625, -0.1250, 0.0625, 0.0625, 0.1250, -0.0625, 0.1250, -0.0625, 0.1250, 0.0625, 0.0625, 0.2500, 0.1250, 0.0625, 0.0000, 0.0000, 0.0000, 0.0000, -0.0625, 0.1250, 0.0625, 0.0000, 0.2500, -0.1250, 0.1250, 0.0625, -0.0625, -0.0625, -0.1250, 0.1250, -0.0625, 0.1250, 0.1875, -0.1250, 0.0625, 0.0000, 0.1250, 0.1250, -0.1875, -0.2500, 0.0000, 0.0000, 0.0000, 0.0000, 0.0000, 0.1250, 0.1250, 0.1250, -0.0625, -0.0625, -0.0625, 0.0000, -0.1875, -0.1875, 0.1875, 0.3125, -0.1250, 0.0000, 0.0000, -0.1250, 0.1875, 0.0000, -0.1250, 0.2500, 0.0625, 0.0000, 0.0625, 0.0000, 0.2500, 0.1250, 0.0000, -0.1875, 0.0625, 0.0000, -0.0625, 0.1875, 0.1250, -0.2500, 0.0625, -0.1250, 0.1250, 0.2500, 0.0625, 0.0000, 0.1250, 0.1250, -0.0625, 0.0000, -0.0625, -0.1250, 0.0000, 0.0625, 0.0000, 0.1250, 0.1250, 0.0000, 0.1875, 0.0000, 0.0000, 0.1250, -0.0625, 0.0625, 0.0625, 0.1250, 0.1250, 0.1875, 0.0000, 0.1875, 0.1250, 0.3125, 0.0625, -0.1250, 0.0000, 0.0000, -0.0625, 0.0625, 0.0000, -0.0625, 0.0000, 0.0625, 0.1250, -0.0625, 0.0000, 0.0000, -0.1250, 0.0000, 0.0000, 0.0000, 0.2500, -0.0625, -0.1250, 0.1875, 0.0000, 0.1250, 0.0625, 0.2500, 0.1875, -0.1875, 0.0000, -0.1875, -0.1250, 0.0000, -0.1250, -0.1250, -0.3750, 0.0000, -0.1250, -0.0625, 0.1250, 0.0000, -0.1875, -0.2500, -0.1250, -0.1875, 0.0000, 0.0000, 0.1250, 0.1875, -0.1250, 0.0625, 0.0000, 0.0000, 0.0625, -0.1875, 0.1875, 0.1250, 0.0000, -0.1875, 0.0625, -0.0625, 0.0000, 0.0625, 0.2500, -0.1250, -0.0625, 0.0000, 0.0625, 0.0000, 0.0000, 0.0625, -0.0625, 0.0000, -0.1250, 0.0000, -0.1250, 0.2500, 0.1250, 0.1250, -0.2500, 0.0000, -0.3125, -0.1250, -0.1250, -0.0625, -0.0625, 0.1875, -0.2500, -0.0625, -0.1250, -0.2500, -0.1250, 0.1875, -0.1250, -0.0625, 0.3125, 0.2500, 0.1250, -0.0625, 0.1875, 0.0625, -0.2500, -0.2500, -0.1250, 0.1250, -0.0625, 0.2500, 0.0000, -0.1250, 0.1250, -0.0625, -0.0625, -0.0625, -0.0625, 0.0625, 0.0000, 0.1875, 0.1250, 0.2500, 0.0625, 0.0625, 0.1250, -0.0625, 0.0000, 0.0000, 0.1250, 0.0000, 0.0000, -0.1250, 0.0000, -0.0625, 0.0000, -0.0625, -0.1250, -0.0625, 0.0000, 0.0000, 0.0000, 0.0000, -0.1875, -0.1250, 0.0000, -0.1250, -0.0625, -0.1250, -0.0625, -0.1250, 0.0000, 0.0000, 0.0625, -0.0625, 0.1250, 0.0000, -0.0625, 0.0000, -0.1250, 0.0000, 0.0625, -0.0625, 0.0000, -0.0625, 0.1875, 0.2500, 0.0000, 0.1250, -0.1250, 0.0000, 0.0000, -0.1250, 0.0000, -0.0625, 0.0000, 0.4375, 0.0000, 0.0000, 0.0000, 0.0625, -0.1250, -0.0625, -0.1875, -0.2500, 0.1875, 0.1875, 0.0000, -0.0625, -0.1875, 0.0000, 0.0000, -0.1875, -0.0625, -0.1250, 0.1875, 0.1250, 0.0000, -0.1875, 0.1250, -0.0625, 0.0625, -0.1250, 0.1250, -0.0625, -0.0625, 0.1875, 0.1250, -0.0625, 0.0625, 0.0000, -0.1875, -0.0625, 0.0625, 0.0000, 0.1875, 0.1875, 0.0000, -0.1875, 0.1250, 0.0000, 0.0000, 0.0000, 0.1875, -0.1875, -0.1250, 0.1250, 0.0000, 0.0000, 0.0000, -0.1250, -0.0625, -0.1250, -0.3125, 0.0000, -0.1250, 0.1250, 0.0000, 0.1875, 0.0000, 0.0625, 0.0000, 0.0000, 0.1875, 0.0625, -0.1875, 0.1250, 0.0000, -0.1875, 0.0625, 0.1875, 0.1875, -0.0625, 0.1250, -0.3125, 0.2500, -0.0625, -0.1250, 0.1250, 0.0000, -0.2500, 0.0625, 0.2500, 0.0625, 0.0625, 0.1250, 0.3125, 0.0000, 0.0625, 0.0000, 0.0000, 0.0000, 0.0000, -0.1250, 0.1875, -0.1875, 0.1250, -0.0625, 0.0000, 0.1250, 0.1875, 0.1250, 0.0625, -0.0625, 0.0000, -0.1250, 0.0625, 0.0625, 0.0000, 0.1875, -0.1875, 0.0625, 0.1875, 0.0625, 0.0625, 0.0000, 0.0000, 0.2500, 0.0000, 0.2500, -0.1250, -0.1250, 0.2500, 0.0625, -0.2500, 0.0625, -0.0625, -0.1250, 0.0000, 0.1875, 0.1250, 0.0625, 0.0000, -0.0625, -0.0625, 0.1875, 0.1250, -0.1250, -0.1875, 0.0625, 0.0625, 0.1250, -0.0625, -0.1250, 0.0000, 0.1250, -0.2500, 0.0000, -0.0625, -0.2500, 0.0000, 0.0000, -0.1875, 0.0000, 0.0000, 0.0000, -0.1250, 0.0000, 0.0625, 0.0625, 0.0625, -0.3750, 0.1250, 0.0000, -0.1250, 0.0000, -0.1250, 0.1250, 0.0625, 0.0000, -0.1875, 0.4375, 0.1250, 0.0625, 0.1875, 0.2500, -0.1875, 0.0000, 0.1875, 0.0000, 0.0000, 0.0625, -0.1250, 0.1250, 0.1875, 0.0000, 0.0000, -0.0625, 0.0625, 0.1250, 0.0000, -0.1250, -0.1250, -0.1250, 0.1250, 0.0000, 0.0625, 0.0000, 0.1875, -0.0625, 0.0000, -0.1250, 0.0000, 0.0625, 0.0625, 0.0000, 0.0000, 0.1250, 0.3125, -0.0625, 0.0000, 0.1875, 0.0000, 0.1875, 0.0000, 0.1250, -0.1250, -0.1250, -0.0625, -0.0625, -0.0625, 0.1875, 0.1250, -0.1250, 0.0000, 0.0000, 0.3125, 0.1250, 0.1875, 0.0625, 0.1250, -0.0625, 0.0000, -0.0625, 0.0000, 0.0625, 0.0000, -0.0625, -0.2500, -0.2500, 0.1250, 0.1250, 0.1250, -0.1875, -0.1250, -0.0625, -0.0625, -0.1875, 0.1250, -0.0625, 0.1250, 0.0625, -0.1250, 0.0000, -0.1250, 0.1875, -0.0625, -0.1250, 0.1250, -0.0625, 0.0000, 0.0000, 0.0000, 0.0000, 0.1250, 0.1250, -0.3750, 0.3125, 0.0000, 0.1250, 0.1250, 0.0000, -0.1250, 0.0000, 0.1250, -0.2500, 0.0625, 0.0625, 0.1250, 0.0000, 0.0000, 0.0000, 0.0625, -0.1250, 0.0625, 0.0000, 0.1250, -0.1250, 0.0625, -0.1250, 0.3750, 0.0625, 0.1250, 0.0000, 0.0625, -0.1250, 0.1875, 0.1250, -0.1250, 0.0625, 0.0000, 0.0625, 0.0625, 0.1250, 0.2500, 0.1875, -0.1250, 0.2500, 0.0000, 0.2500, 0.0000, 0.1250, -0.1250, 0.0000, 0.2500, -0.2500, -0.0625, 0.0625, 0.1875, 0.0625, 0.0000, 0.0000, 0.0625, 0.3750, 0.0625, 0.0000, 0.0000, -0.1250, 0.0625, 0.0625, 0.0000, -0.1875, 0.0000, -0.0625, -0.1250, -0.1875, -0.2500, 0.0625, -0.1250, 0.0000, 0.0000, -0.1250, 0.0625, 0.1250, -0.1250, -0.0625, -0.1875, 0.1250, 0.0000, 0.0000, 0.1250, 0.1250, -0.1250, 0.0625, 0.0000, -0.2500, -0.0625, 0.0000, 0.0000, -0.1875, 0.2500, 0.0625, -0.2500, 0.2500, 0.0000, 0.0000, -0.0625, 0.0000, -0.1875, -0.0625, 0.0000, 0.0625, -0.0625, 0.0625, 0.0000, -0.0625, -0.0625, -0.2500, -0.2500, -0.1875, 0.1250, 0.0000, 0.0625, -0.1250, 0.0000, 0.0000, 0.0000, 0.0000, 0.3125, 0.1875, 0.4375, -0.1875, 0.1875, 0.0000, 0.0000, -0.0625, 0.0000, 0.1875, 0.1250, -0.0625, 0.0625, 0.0000, 0.0000, -0.0625, 0.0000, 0.0625, 0.0000, -0.1875, -0.1250, -0.0625, 0.0000, 0.0000, 0.1250, 0.1250, -0.1875, 0.0625, -0.1250, -0.1250, 0.0000, 0.1875, 0.0625, 0.1250, -0.1250, 0.1250, 0.0625, 0.1250, 0.0000, 0.0000, 0.2500, 0.1250, 0.1250, -0.1875, -0.1250, 0.1875, 0.0000, 0.0000, -0.0625, -0.1250, -0.1250, 0.0000, 0.0000, 0.0000, 0.0625, -0.1250, -0.0625, 0.1250, -0.1250, -0.1875, -0.0625, 0.0000, 0.0000, 0.3750, -0.1250, 0.3750, -0.1250, 0.0000, 0.0625, -0.1250, -0.3125, 0.0000, -0.1875, 0.0000, 0.0000, 0.0000, -0.1250, 0.1250, 0.1250, 0.0000, 0.0625, 0.0000, 0.0000, 0.0625, -0.1250, 0.1250, -0.1875, -0.0625, 0.3125, 0.1875, 0.0000, 0.0000, 0.1250, -0.1250, -0.0625, 0.1250, 0.0000, 0.1250, 0.0625, 0.0000, 0.1875, -0.1250, -0.1875, -0.1250, -0.1250, 0.0000, 0.0000, 0.1250, 0.1875, -0.0625, 0.1250, 0.1250, 0.1875, 0.0000, 0.1250, -0.1875, 0.0000, 0.1250, 0.0000, 0.1250, -0.0625, 0.0625, 0.0000, 0.1250, -0.1875, -0.1250, 0.0000, 0.0000, 0.1250, 0.1250, 0.0000, 0.1250, 0.1250, 0.0000, 0.0000, 0.0000, 0.1875, 0.1250, 0.0625, -0.0625, -0.0625, 0.1875, -0.1250, -0.0625, -0.1250, 0.0625, -0.1250, 0.1250, -0.0625, 0.0000, 0.1875, -0.0625, -0.0625, 0.1250, 0.0000, 0.0625, -0.0625, -0.1875, -0.1250, 0.3750, -0.1250, 0.1875, 0.1250, -0.0625, -0.0625, 0.1250, -0.1250, 0.0000, -0.0625, 0.0000, -0.4375, 0.0000, 0.0000, 0.0000, 0.2500, 0.0000, 0.0000, 0.1250, 0.1250, 0.0625, 0.0625, 0.1250, 0.2500, 0.0000, 0.0000, 0.0625, 0.2500, -0.1250, 0.1250, -0.1250, 0.2500, 0.0000, -0.0625, 0.3125, -0.1875, -0.0625, 0.0000, -0.1250, 0.0000, 0.0625, 0.0000, 0.1250, -0.1250, 0.1875, 0.0000, 0.1250, 0.0000, 0.1250, 0.0000, 0.0625, 0.0000, 0.0000, 0.0000, 0.0000, 0.0000, 0.0625, 0.1250, 0.1250, 0.0000, -0.0625, -0.1250, -0.1250, -0.1875, -0.1250, 0.1250, 0.1250, -0.0625, 0.0000, 0.1250, 0.0000, 0.0625, -0.1875, 0.0000, 0.1875, 0.0000, -0.1875, 0.0000, 0.1875, 0.0625, 0.1250, -0.0625, -0.0625, -0.1250, 0.0000, -0.0625, 0.0000, 0.0000, 0.0000, -0.0625, -0.0625, -0.1875, 0.0625, -0.0625, 0.0000, 0.0000, 0.0625, -0.0625, 0.2500, 0.0000, -0.1875, 0.0625, 0.1250, -0.3750, 0.1250, 0.0000, 0.1250, -0.2500, -0.0625, 0.0000, -0.0625, 0.1250, 0.0000, 0.0000, 0.0000, 0.1250, 0.0000, 0.0625, 0.0625, 0.1250, -0.0625, 0.0625, 0.0625, 0.2500, 0.0625, 0.0625, -0.1250, 0.1875, 0.0625, 0.0625, 0.1250, -0.0625, -0.0625, 0.0000, -0.1875, -0.0625, 0.0625, -0.0625, 0.0625, 0.0000, -0.0625, 0.0625, 0.0000, 0.0000, 0.2500, -0.1250, 0.0000, 0.1250, 0.1250, 0.0000, 0.0625, -0.0625, -0.1250, 0.0000, 0.1875, 0.1250, 0.0000, 0.0000, -0.1250, 0.0000, 0.0625, 0.0000, 0.0000, 0.0625, -0.1250, 0.1250, 0.0625, 0.0000, -0.1250, -0.1250, 0.1875, 0.0000, -0.2500, -0.0625, 0.1875, -0.1875, 0.0000, 0.0000, 0.0000, -0.1250, -0.1250, 0.0000, 0.0625, 0.1250, 0.2500, -0.0625, 0.0000, -0.1250, 0.3125, -0.1250, 0.0000, 0.0000, -0.0625, 0.1250, -0.1875, 0.2500, 0.0000, 0.1875, 0.0625, -0.3125, 0.1875, 0.0625, 0.1250, -0.1875, -0.1875, 0.0000, 0.0000, -0.0625, 0.0000, 0.2500, 0.0000, -0.1875, 0.0000, -0.0625, 0.1250, 0.1250, 0.0625, -0.0625, -0.0625, 0.1875, -0.1250, 0.0625, 0.0000, 0.0000, 0.0000, 0.1250, 0.1875, 0.0000, -0.1250, -0.1250, -0.1250, 0.0000, 0.0000, 0.0000, 0.2500, 0.0625, 0.1875, 0.0000, 0.0625, 0.0000, 0.0000, -0.1250, 0.0000, -0.0625, -0.1250, -0.0625, 0.0625, 0.1250, 0.0000, -0.1250, 0.0625, -0.0625, 0.1875, 0.0625, 0.1875, 0.0000, 0.0000, -0.1250, -0.0625, 0.0000, -0.0625, 0.0625, 0.1250, 0.1875, -0.3125, 0.0000, 0.0625, 0.1875, -0.1875, -0.1875, 0.0625, 0.0000, 0.0000, 0.0000, 0.0625, -0.0625, 0.2500, 0.0000, 0.0625, -0.0625, 0.1250, 0.0000, 0.1250, 0.0000, 0.0000, 0.0625, -0.1250, -0.1250, -0.1875, 0.0000, 0.0000, 0.2500, -0.0625, 0.1250, 0.1250, -0.1875, 0.0000, 0.0000, 0.1250, -0.2500, -0.1250, 0.0000, -0.1875, 0.1875, -0.0625, 0.1250, 0.0000, 0.0000, 0.0000, 0.0000, 0.0000, 0.0000, -0.0625, -0.0625, -0.0625, 0.1250, -0.0625, 0.0625, 0.0000, 0.0000, 0.3125, 0.0000, -0.0625, -0.1875, 0.0000, 0.0000, 0.0000, 0.1250, 0.0000, 0.0000, 0.1875, -0.0625, 0.0000, 0.1250, 0.0000, 0.0625, -0.1250, 0.0000, -0.0625, -0.1250, -0.0625, 0.0000, -0.0625, 0.2500, 0.0625, -0.0625, 0.1250, -0.1875, 0.0625, -0.0625};

#endif

#endif
